digraph Tree {
node [shape=box, style="filled, rounded", color="black", fontname=helvetica] ;
edge [fontname=helvetica] ;
0 [label="thal <= 2.5\ngini = 0.5\nsamples = 136\nvalue = [105, 107]\nclass = 1", fillcolor="#fbfdff"] ;
1 [label="ca <= 0.5\ngini = 0.42\nsamples = 88\nvalue = [41, 93]\nclass = 1", fillcolor="#90c8f0"] ;
0 -> 1 [labeldistance=2.5, labelangle=45, headlabel="True"] ;
2 [label="age <= 58.5\ngini = 0.24\nsamples = 55\nvalue = [12, 73]\nclass = 1", fillcolor="#5aade9"] ;
1 -> 2 ;
3 [label="thalach <= 125.5\ngini = 0.14\nsamples = 42\nvalue = [5, 61]\nclass = 1", fillcolor="#49a5e7"] ;
2 -> 3 ;
4 [label="chol <= 245.0\ngini = 0.38\nsamples = 3\nvalue = [3, 1]\nclass = 0", fillcolor="#eeab7b"] ;
3 -> 4 ;
5 [label="gini = 0.0\nsamples = 1\nvalue = [0, 1]\nclass = 1", fillcolor="#399de5"] ;
4 -> 5 ;
6 [label="gini = 0.0\nsamples = 2\nvalue = [3, 0]\nclass = 0", fillcolor="#e58139"] ;
4 -> 6 ;
7 [label="thal <= 0.5\ngini = 0.06\nsamples = 39\nvalue = [2, 60]\nclass = 1", fillcolor="#40a0e6"] ;
3 -> 7 ;
8 [label="gini = 0.0\nsamples = 1\nvalue = [1, 0]\nclass = 0", fillcolor="#e58139"] ;
7 -> 8 ;
9 [label="trestbps <= 109.0\ngini = 0.03\nsamples = 38\nvalue = [1, 60]\nclass = 1", fillcolor="#3c9fe5"] ;
7 -> 9 ;
10 [label="age <= 46.5\ngini = 0.32\nsamples = 4\nvalue = [1, 4]\nclass = 1", fillcolor="#6ab6ec"] ;
9 -> 10 ;
11 [label="gini = 0.0\nsamples = 3\nvalue = [0, 4]\nclass = 1", fillcolor="#399de5"] ;
10 -> 11 ;
12 [label="gini = 0.0\nsamples = 1\nvalue = [1, 0]\nclass = 0", fillcolor="#e58139"] ;
10 -> 12 ;
13 [label="gini = 0.0\nsamples = 34\nvalue = [0, 56]\nclass = 1", fillcolor="#399de5"] ;
9 -> 13 ;
14 [label="fbs <= 0.5\ngini = 0.47\nsamples = 13\nvalue = [7, 12]\nclass = 1", fillcolor="#acd6f4"] ;
2 -> 14 ;
15 [label="thal <= 1.5\ngini = 0.49\nsamples = 10\nvalue = [7, 9]\nclass = 1", fillcolor="#d3e9f9"] ;
14 -> 15 ;
16 [label="gini = 0.0\nsamples = 1\nvalue = [0, 2]\nclass = 1", fillcolor="#399de5"] ;
15 -> 16 ;
17 [label="trestbps <= 130.0\ngini = 0.5\nsamples = 9\nvalue = [7, 7]\nclass = 0", fillcolor="#ffffff"] ;
15 -> 17 ;
18 [label="gini = 0.0\nsamples = 3\nvalue = [0, 5]\nclass = 1", fillcolor="#399de5"] ;
17 -> 18 ;
19 [label="chol <= 299.0\ngini = 0.35\nsamples = 6\nvalue = [7, 2]\nclass = 0", fillcolor="#eca572"] ;
17 -> 19 ;
20 [label="slope <= 1.5\ngini = 0.22\nsamples = 5\nvalue = [7, 1]\nclass = 0", fillcolor="#e99355"] ;
19 -> 20 ;
21 [label="gini = 0.0\nsamples = 3\nvalue = [5, 0]\nclass = 0", fillcolor="#e58139"] ;
20 -> 21 ;
22 [label="chol <= 259.0\ngini = 0.44\nsamples = 2\nvalue = [2, 1]\nclass = 0", fillcolor="#f2c09c"] ;
20 -> 22 ;
23 [label="gini = 0.0\nsamples = 1\nvalue = [0, 1]\nclass = 1", fillcolor="#399de5"] ;
22 -> 23 ;
24 [label="gini = 0.0\nsamples = 1\nvalue = [2, 0]\nclass = 0", fillcolor="#e58139"] ;
22 -> 24 ;
25 [label="gini = 0.0\nsamples = 1\nvalue = [0, 1]\nclass = 1", fillcolor="#399de5"] ;
19 -> 25 ;
26 [label="gini = 0.0\nsamples = 3\nvalue = [0, 3]\nclass = 1", fillcolor="#399de5"] ;
14 -> 26 ;
27 [label="cp <= 0.5\ngini = 0.48\nsamples = 33\nvalue = [29, 20]\nclass = 0", fillcolor="#f7d8c2"] ;
1 -> 27 ;
28 [label="chol <= 301.0\ngini = 0.26\nsamples = 17\nvalue = [22, 4]\nclass = 0", fillcolor="#ea985d"] ;
27 -> 28 ;
29 [label="age <= 66.5\ngini = 0.09\nsamples = 13\nvalue = [19, 1]\nclass = 0", fillcolor="#e68843"] ;
28 -> 29 ;
30 [label="gini = 0.0\nsamples = 11\nvalue = [18, 0]\nclass = 0", fillcolor="#e58139"] ;
29 -> 30 ;
31 [label="restecg <= 0.5\ngini = 0.5\nsamples = 2\nvalue = [1, 1]\nclass = 0", fillcolor="#ffffff"] ;
29 -> 31 ;
32 [label="gini = 0.0\nsamples = 1\nvalue = [1, 0]\nclass = 0", fillcolor="#e58139"] ;
31 -> 32 ;
33 [label="gini = 0.0\nsamples = 1\nvalue = [0, 1]\nclass = 1", fillcolor="#399de5"] ;
31 -> 33 ;
34 [label="sex <= 0.5\ngini = 0.5\nsamples = 4\nvalue = [3, 3]\nclass = 0", fillcolor="#ffffff"] ;
28 -> 34 ;
35 [label="gini = 0.0\nsamples = 2\nvalue = [0, 3]\nclass = 1", fillcolor="#399de5"] ;
34 -> 35 ;
36 [label="gini = 0.0\nsamples = 2\nvalue = [3, 0]\nclass = 0", fillcolor="#e58139"] ;
34 -> 36 ;
37 [label="oldpeak <= 2.2\ngini = 0.42\nsamples = 16\nvalue = [7, 16]\nclass = 1", fillcolor="#90c8f0"] ;
27 -> 37 ;
38 [label="trestbps <= 135.0\ngini = 0.32\nsamples = 15\nvalue = [4, 16]\nclass = 1", fillcolor="#6ab6ec"] ;
37 -> 38 ;
39 [label="gini = 0.0\nsamples = 7\nvalue = [0, 10]\nclass = 1", fillcolor="#399de5"] ;
38 -> 39 ;
40 [label="oldpeak <= 1.45\ngini = 0.48\nsamples = 8\nvalue = [4, 6]\nclass = 1", fillcolor="#bddef6"] ;
38 -> 40 ;
41 [label="age <= 54.5\ngini = 0.5\nsamples = 6\nvalue = [4, 4]\nclass = 0", fillcolor="#ffffff"] ;
40 -> 41 ;
42 [label="gini = 0.0\nsamples = 2\nvalue = [0, 3]\nclass = 1", fillcolor="#399de5"] ;
41 -> 42 ;
43 [label="chol <= 213.5\ngini = 0.32\nsamples = 4\nvalue = [4, 1]\nclass = 0", fillcolor="#eca06a"] ;
41 -> 43 ;
44 [label="gini = 0.0\nsamples = 1\nvalue = [0, 1]\nclass = 1", fillcolor="#399de5"] ;
43 -> 44 ;
45 [label="gini = 0.0\nsamples = 3\nvalue = [4, 0]\nclass = 0", fillcolor="#e58139"] ;
43 -> 45 ;
46 [label="gini = 0.0\nsamples = 2\nvalue = [0, 2]\nclass = 1", fillcolor="#399de5"] ;
40 -> 46 ;
47 [label="gini = 0.0\nsamples = 1\nvalue = [3, 0]\nclass = 0", fillcolor="#e58139"] ;
37 -> 47 ;
48 [label="trestbps <= 109.0\ngini = 0.29\nsamples = 48\nvalue = [64, 14]\nclass = 0", fillcolor="#eb9d64"] ;
0 -> 48 [labeldistance=2.5, labelangle=-45, headlabel="False"] ;
49 [label="gini = 0.0\nsamples = 2\nvalue = [0, 4]\nclass = 1", fillcolor="#399de5"] ;
48 -> 49 ;
50 [label="thalach <= 159.0\ngini = 0.23\nsamples = 46\nvalue = [64, 10]\nclass = 0", fillcolor="#e99558"] ;
48 -> 50 ;
51 [label="age <= 67.5\ngini = 0.04\nsamples = 34\nvalue = [51, 1]\nclass = 0", fillcolor="#e6833d"] ;
50 -> 51 ;
52 [label="gini = 0.0\nsamples = 31\nvalue = [49, 0]\nclass = 0", fillcolor="#e58139"] ;
51 -> 52 ;
53 [label="trestbps <= 129.0\ngini = 0.44\nsamples = 3\nvalue = [2, 1]\nclass = 0", fillcolor="#f2c09c"] ;
51 -> 53 ;
54 [label="gini = 0.0\nsamples = 1\nvalue = [0, 1]\nclass = 1", fillcolor="#399de5"] ;
53 -> 54 ;
55 [label="gini = 0.0\nsamples = 2\nvalue = [2, 0]\nclass = 0", fillcolor="#e58139"] ;
53 -> 55 ;
56 [label="cp <= 1.5\ngini = 0.48\nsamples = 12\nvalue = [13, 9]\nclass = 0", fillcolor="#f7d8c2"] ;
50 -> 56 ;
57 [label="chol <= 211.5\ngini = 0.17\nsamples = 7\nvalue = [10, 1]\nclass = 0", fillcolor="#e88e4d"] ;
56 -> 57 ;
58 [label="ca <= 0.5\ngini = 0.5\nsamples = 2\nvalue = [1, 1]\nclass = 0", fillcolor="#ffffff"] ;
57 -> 58 ;
59 [label="gini = 0.0\nsamples = 1\nvalue = [0, 1]\nclass = 1", fillcolor="#399de5"] ;
58 -> 59 ;
60 [label="gini = 0.0\nsamples = 1\nvalue = [1, 0]\nclass = 0", fillcolor="#e58139"] ;
58 -> 60 ;
61 [label="gini = 0.0\nsamples = 5\nvalue = [9, 0]\nclass = 0", fillcolor="#e58139"] ;
57 -> 61 ;
62 [label="trestbps <= 113.5\ngini = 0.4\nsamples = 5\nvalue = [3, 8]\nclass = 1", fillcolor="#83c2ef"] ;
56 -> 62 ;
63 [label="gini = 0.0\nsamples = 1\nvalue = [3, 0]\nclass = 0", fillcolor="#e58139"] ;
62 -> 63 ;
64 [label="gini = 0.0\nsamples = 4\nvalue = [0, 8]\nclass = 1", fillcolor="#399de5"] ;
62 -> 64 ;
}